Language model created by QuickLM on Mon Oct  1 03:52:25 EDT 2018
Copyright (c) 1996-2010 Carnegie Mellon University and Alexander I. Rudnicky

The model is in standard ARPA format, designed by Doug Paul while he was at MITRE.

The code that was used to produce this language model is available in Open Source.
Please visit http://www.speech.cs.cmu.edu/tools/ for more information

The (fixed) discount mass is 0.5. The backoffs are computed using the ratio method.
This model based on a corpus of 24 sentences and 26 words

\data\
ngram 1=26
ngram 2=48
ngram 3=24

\1-grams:
-0.7782 </s> -0.3010
-0.7782 <s> -0.2218
-2.1584 BRIGHTNESSDOWN -0.2218
-2.1584 BRIGHTNESSMAX -0.2218
-2.1584 BRIGHTNESSMIN -0.2218
-2.1584 BRIGHTNESSUP -0.2218
-2.1584 CHECKDATE -0.2218
-2.1584 CHECKTIME -0.2218
-2.1584 CHECKTRAFFIC -0.2218
-2.1584 GOOGLESEARCH -0.2218
-2.1584 HISTORY -0.2218
-2.1584 KIFTSENDEMAIL -0.2218
-2.1584 LOCKSCREEN -0.2218
-2.1584 PLAYMUSIC -0.2218
-2.1584 STARTTIMERLONG -0.2218
-2.1584 STARTTIMERSHORT -0.2218
-2.1584 STOPSONG -0.2218
-2.1584 VOLUMEHALF -0.2218
-2.1584 VOLUMEMAX -0.2218
-2.1584 VOLUMEMIN -0.2218
-2.1584 WHATSHAPPENING -0.2218
-2.1584 WHATSTHEWEATHER -0.2218
-2.1584 WHEREAMI -0.2218
-2.1584 WHOAMI -0.2218
-2.1584 WHYAMI -0.2218
-2.1584 YOLKIFT -0.2218

\2-grams:
-1.6812 <s> BRIGHTNESSDOWN 0.0000
-1.6812 <s> BRIGHTNESSMAX 0.0000
-1.6812 <s> BRIGHTNESSMIN 0.0000
-1.6812 <s> BRIGHTNESSUP 0.0000
-1.6812 <s> CHECKDATE 0.0000
-1.6812 <s> CHECKTIME 0.0000
-1.6812 <s> CHECKTRAFFIC 0.0000
-1.6812 <s> GOOGLESEARCH 0.0000
-1.6812 <s> HISTORY 0.0000
-1.6812 <s> KIFTSENDEMAIL 0.0000
-1.6812 <s> LOCKSCREEN 0.0000
-1.6812 <s> PLAYMUSIC 0.0000
-1.6812 <s> STARTTIMERLONG 0.0000
-1.6812 <s> STARTTIMERSHORT 0.0000
-1.6812 <s> STOPSONG 0.0000
-1.6812 <s> VOLUMEHALF 0.0000
-1.6812 <s> VOLUMEMAX 0.0000
-1.6812 <s> VOLUMEMIN 0.0000
-1.6812 <s> WHATSHAPPENING 0.0000
-1.6812 <s> WHATSTHEWEATHER 0.0000
-1.6812 <s> WHEREAMI 0.0000
-1.6812 <s> WHOAMI 0.0000
-1.6812 <s> WHYAMI 0.0000
-1.6812 <s> YOLKIFT 0.0000
-0.3010 BRIGHTNESSDOWN </s> -0.3010
-0.3010 BRIGHTNESSMAX </s> -0.3010
-0.3010 BRIGHTNESSMIN </s> -0.3010
-0.3010 BRIGHTNESSUP </s> -0.3010
-0.3010 CHECKDATE </s> -0.3010
-0.3010 CHECKTIME </s> -0.3010
-0.3010 CHECKTRAFFIC </s> -0.3010
-0.3010 GOOGLESEARCH </s> -0.3010
-0.3010 HISTORY </s> -0.3010
-0.3010 KIFTSENDEMAIL </s> -0.3010
-0.3010 LOCKSCREEN </s> -0.3010
-0.3010 PLAYMUSIC </s> -0.3010
-0.3010 STARTTIMERLONG </s> -0.3010
-0.3010 STARTTIMERSHORT </s> -0.3010
-0.3010 STOPSONG </s> -0.3010
-0.3010 VOLUMEHALF </s> -0.3010
-0.3010 VOLUMEMAX </s> -0.3010
-0.3010 VOLUMEMIN </s> -0.3010
-0.3010 WHATSHAPPENING </s> -0.3010
-0.3010 WHATSTHEWEATHER </s> -0.3010
-0.3010 WHEREAMI </s> -0.3010
-0.3010 WHOAMI </s> -0.3010
-0.3010 WHYAMI </s> -0.3010
-0.3010 YOLKIFT </s> -0.3010

\3-grams:
-0.3010 <s> BRIGHTNESSDOWN </s>
-0.3010 <s> BRIGHTNESSMAX </s>
-0.3010 <s> BRIGHTNESSMIN </s>
-0.3010 <s> BRIGHTNESSUP </s>
-0.3010 <s> CHECKDATE </s>
-0.3010 <s> CHECKTIME </s>
-0.3010 <s> CHECKTRAFFIC </s>
-0.3010 <s> GOOGLESEARCH </s>
-0.3010 <s> HISTORY </s>
-0.3010 <s> KIFTSENDEMAIL </s>
-0.3010 <s> LOCKSCREEN </s>
-0.3010 <s> PLAYMUSIC </s>
-0.3010 <s> STARTTIMERLONG </s>
-0.3010 <s> STARTTIMERSHORT </s>
-0.3010 <s> STOPSONG </s>
-0.3010 <s> VOLUMEHALF </s>
-0.3010 <s> VOLUMEMAX </s>
-0.3010 <s> VOLUMEMIN </s>
-0.3010 <s> WHATSHAPPENING </s>
-0.3010 <s> WHATSTHEWEATHER </s>
-0.3010 <s> WHEREAMI </s>
-0.3010 <s> WHOAMI </s>
-0.3010 <s> WHYAMI </s>
-0.3010 <s> YOLKIFT </s>

\end\
